0.23727080
-1.39391243
0.05543196
0.68973172
1.08058202
-0.06102270
-0.55589175
-1.20188355
0.96199751
-0.45778352
0.37629771
0.71410042
0.03968327
2.04831958
1.17848921
0.75951707
0.11915761
0.51947135
-0.78699458
-1.26170993
-0.90601909
-0.15671366
0.38032585
-0.31874552
-0.03480917
0.29216295
-0.16417512
0.31489098
-0.07108019
-0.67955637
-0.43124461
0.33885503
0.17871118
0.20103034
-1.09488249
-1.13710511
-0.73331654
-0.80145788
-0.21154058
0.83789027
0.44157514
-0.69110644
1.33241189
0.34602910
0.68305093
0.58229125
0.99069583
-0.79395330
-0.01212449
0.70812631
-0.17440814
-1.16804016
0.55709875
0.25826511
-0.58117437
-1.07595026
-0.90953416
-1.17431235
-0.19383849
0.02669175
-0.67086703
-0.07155544
-0.67280573
0.22921519
-0.07612399
-1.10320354
-0.37120944
0.67892051
-0.07474651
0.40293977
0.25716925
0.37975514
0.00980793
0.26629591
0.32810277
0.33364922
0.43289524
-0.78045517
-0.01452872
0.50475204
-1.05629718
-0.17854272
0.73895359
-0.11700645
0.04007873
-1.44780111
-0.67713898
0.38919780
-0.27672091
0.11898783
0.00948332
0.58760184
-0.09094150
-0.17606251
-1.07388663
0.12907374
-0.51956725
-1.56087756
-1.82318139
-0.95413291
-0.58490103
-0.58691096
0.16814291
-0.90787876
0.27747664
-0.50155306
-0.44439143
-0.79826427
-0.78033447
0.20953964
-0.79396522
-0.42041200
-0.82061023
-0.68025500
0.14026456
0.31033164
-0.45734632
-0.84598154
0.36101136
-0.74378073
0.24636838
-0.41050214
-0.43168890
0.44308579
-0.16043717
0.28106338
-0.80183840
-0.25447407
-1.78148329
-1.16933548
-1.23634124
0.43509352
-0.86990821
-0.23046081
-0.43408495
0.34312925
-0.93740439
-0.41160491
-0.80163503
0.06572911
0.05032659
-0.19412361
-0.69418186
-0.79402047
-0.72123277
-0.24469748
-0.85944283
-1.06456935
-0.87435967
-0.96755135
0.70556247
1.77823257
0.99237394
-0.16253668
-0.23490387
-0.45268834
0.14501169
-0.45012286
-0.54530829
0.00068720
4.74976730
-0.35329032
0.37795728
-0.66672415
1.60922623
0.01057172
-0.14675272
-0.28131646
0.73899728
2.22613263
-1.30495429
1.02290428
1.27903080
2.71542764
1.13438010
-0.67649597
-0.56371570
0.09952886
-0.32445371
1.74031484
3.31318045
4.04621887
-0.53023279
0.81109202
0.31562814
0.95724934
1.17676878
0.33944783
0.74940991
0.08404201
0.18379657
-0.06457597
0.13892409
0.88020110
1.61550605
0.11069736
0.96303195
0.59670460
1.32228386
0.68527877
-0.06326556
1.35990453
1.26526165
1.14653957
0.17757809
0.47021526
-1.31194293
-0.84178954
-0.37122002
-0.35872379
-0.42302418
1.19562745
2.49100375
-0.62200326
-0.30781397
-0.18816157
-1.00630832
-0.48246604
-0.60438192
-0.49429685
-0.39065015
-0.23256552
-0.09636858
-1.01003253
-2.09860182
-1.19952762
0.63840955
0.17004257
-0.59102923
0.76841486
-0.42333809
-0.87706214
-1.25624263
-0.62273192
0.53331858
0.34761095
0.67424881
1.65036798
0.69186020
-0.20167667
0.04410505
0.22198199
-1.06408298
6.17718029
5.21231985
-0.33943608
2.67974257
5.19175673
0.60168040
-0.47047108
-1.21326005
-0.71793652
2.19390106
0.02249283
2.81064820
0.38549840
-0.18277612
-0.10847503
-1.08865833
-0.39692050
-0.27164033
0.12243022
-1.22915053
0.54198301
-1.63109303
0.00770125
-0.65910006
-1.37277651
-0.42581931
2.95742345
-1.64040661
-1.48709834
-1.93878746
-0.99556214
-0.26406336
0.43290448
1.23312426
2.47049379
-0.36429173
-0.59659517
-1.18464375
-0.99594426
3.08301592
3.74600840
0.97051841
0.15589297
3.86393142
1.74829960
1.49416649
2.70722961
2.00969386
2.78853369
2.23445058
4.12540436
0.77692598
-0.07123157
-1.12889278
0.45187473
-1.16951442
-0.35948136
0.23130327
-1.07583952
0.31345111
-0.48209241
1.48864198
-0.24135952
-0.93433905
1.00610542
1.50148118
0.29199463
0.59482872
0.48520327
0.70426947
0.46239120
-0.22737667
-0.81768906
-0.44020528
0.48417926
0.71951771
-0.26027331
0.14476523
-0.14707768
0.09655632
0.93580091
1.13658905
0.47039118
0.76646912
0.55178148
-0.84090793
-0.26565373
-0.62583357
-0.71553504
-0.31824708
-0.56043518
-0.44282332
-0.55846900
-0.58660436
-0.99486756
-0.17495224
-0.90361392
1.06118071
1.36942840
-0.60053039
-1.13323188
-0.79497445
0.78876871
0.69511968
-0.58676487
-0.25215051
-1.60038936
-1.72397220
0.42473656
0.55028981
0.56907809
-0.22955881
-0.01408708
0.07038055
-0.94650418
-0.58930409
-1.46298087
-1.16241789
-0.94544697
-1.03814185
-1.64382350
-1.12505925
-0.94927877
0.09189799
0.39195803
-0.28079024
-0.79399246
-0.89789653
0.17684387
0.44657880
-0.47555739
0.60834646
0.00660682
-1.08350933
0.40531024
0.36198306
-1.48232937
-0.21743646
0.44355774
-0.76637906
-0.56417191
0.84310675
-0.54631531
-0.03397720
-0.12877493
-0.63637793
-1.39500296
-0.72901571
-0.08236432
0.06760298
-0.52151334
-0.48091370
-1.40925312
0.11829443
0.39800444
-0.77854860
0.22271326
0.84941030
-0.33620256
-0.23188058
0.08457431
-0.63849616
0.50765544
0.80323160
0.00164020
-1.06896186
-0.91891354
-0.28221017
0.18102787
-0.68607318
0.64918447
-0.09998392
0.22765265
-0.30662364
-1.30594051
0.74415267
-0.22196808
0.89126736
-0.17656773
0.33497214
1.63178825
-0.17137200
0.32155395
-0.22178903
0.21607563
0.75447714
-0.53298295
-0.08975440
1.48058009
0.14034112
-0.32219389
0.88618857
0.81063271
0.26613671
-0.89804113
-0.22584918
-1.04861557
-0.36572695
-0.83555979
-0.46761179
-1.66913831
-1.00033414
-1.31336665
0.22812654
-0.10576820
-1.60080266
-0.99601221
-1.46308827
-1.43965459
-2.12620759
-0.52593249
0.50055432
0.49303874
-0.59285969
-0.54396766
0.32736278
-0.79958200
0.85598773
-0.24232909
-0.23555897
0.41254902
0.63284284
-1.55326879
-0.54623550
-1.17398298
0.53582400
-0.71981448
0.75402927
-0.43317002
0.34626150
-0.59077299
1.36624169
-0.60096490
-1.58929658
0.70011228
0.14999416
0.72371984
-0.95256746
0.37786707
-0.45590031
-0.80615765
0.14675219
-0.94777483
0.39395440
0.36151409
-0.38612866
0.75963384
0.37745780
-0.64986283
-0.75885242
0.06859910
0.98683345
-1.89883375
0.01789558
0.13473025
0.34887013
-0.31837565
0.36192042
-0.21904355
1.13017821
-0.86118764
0.01598388
-0.26844352
0.60188943
0.57769930
0.69241804
0.34463578
-0.65425730
0.77110535
-1.64988625
1.53918958
-0.03500837
-0.50460285
-0.53282773
-0.50056028
-0.10420729
0.16664180
0.64946145
0.12817743
0.37211353
-1.29463148
-0.33867022
0.23615386
0.55081207
-0.21040052
0.24921024
0.16839474
0.17176469
-0.18724275
-0.65514266
-0.47474721
-0.38424107
-0.29436526
0.64157403
-0.30307701
-1.27511501
0.91550535
0.65209103
-0.85598111
-0.77681899
-0.04735500
1.76076031
-0.52500987
-0.43666801
0.18202628
-0.85243660
-0.52093017
-1.11920953
-1.00392914
-0.45484641
0.54270309
0.79901087
-0.05092898
-0.05465308
0.86810744
0.58769131
-0.14803550
-0.24466631
-0.13448884
-0.01639046
1.41004825
-0.83571982
1.16095436
0.93806487
-0.94360983
-0.23507567
0.11782181
-0.48441315
1.37155747
0.10777764
0.06895487
-0.80053759
-0.90875673
-1.28723383
0.11647332
-0.94576710
0.70056385
-0.31074756
0.31845230
-1.23934448
0.50784773
0.27634168
-1.55564260
0.48382783
-0.33662295
0.28372115
-0.18198934
-0.01478201
1.40587759
-0.25382230
1.47769523
0.69797999
-0.29765445
-0.98869604
-0.67345583
-0.50546765
-0.45281172
-0.71935773
0.75946605
0.30470130
0.13475364
1.00499654
1.73856854
-0.35597137
0.30128330
0.62538409
-0.35241476
-1.76261628
-0.57944769
-0.19845520
0.29449028
0.92206562
-1.38914192
-0.38487926
0.43032700
-0.17275760
-0.05762719
0.16619605
0.10868645
-0.79624957
0.26259753
0.35853344
0.82602787
-0.32486072
-0.36474681
-1.25568724
0.00466743
0.23044476
-0.30856895
0.45067424
0.22209215
-0.86125118
-1.05670595
0.07377251
0.28701180
0.68256766
0.19509329
-0.01260626
-0.07155327
-0.84460461
-0.62369120
1.19899249
0.23150921
-0.38324502
0.26716691
0.12961572
-0.26396236
-0.85443377
0.58339572
0.82262188
0.78557974
-0.01105699
-1.01475787
-0.16244125
-1.58530915
-0.95940399
0.25861999
0.59843445
-1.19034231
-0.70222718
1.04309869
0.33355495
0.19329691
-0.45684618
0.78267270
-0.49916878
2.03866076
1.56437039
-0.85292864
-0.37628826
-0.72042972
0.05209753
0.85808432
0.39888427
1.79052234
-0.21708393
0.19897065
-0.10615578
1.05032551
0.27116448
0.18975279
-0.62966132
-0.35977840
-0.88010800
0.19424261
-0.14567317
1.11743951
-0.07972807
0.05880459
0.29699409
0.10602935
0.01253075
-0.46968573
-0.39320099
-0.06562927
0.14121374
1.62211895
-0.25702697
0.78717840
-0.19712508
-0.44994423
-0.62479186
0.12752128
-0.23158059
0.20906943
-0.24979395
1.98073232
0.86665475
1.47296476
-0.35814565
-0.31272489
0.01927163
-0.83863986
0.71782184
0.49231699
-0.73682779
-0.69907618
-0.01525774
0.97047830
-0.34990650
0.61698562
-2.67994738
-0.54440808
0.15373172
-0.19211015
-0.60670340
0.85461318
0.33475998
-0.43195021
1.22451675
-0.97463542
0.29338226
0.33852723
-1.18663692
-0.34716499
-0.59938681
-0.41388667
0.25812662
-0.49925071
0.94237363
0.23056270
0.33816466
-0.55558932
0.27055216
0.03057495
0.67510885
0.02800767
-0.39493647
0.49515596
-0.86831391
-0.75358665
0.80428249
0.26437646
0.89375228
0.18577208
-0.29350162
-1.51111925
-0.27838981
0.99600756
1.33593166
-0.42102396
-1.22050381
0.24497719
-0.00414746
0.43623939
0.41499299
-0.15089312
0.44412810
-0.17709938
0.58782297
-0.21920997
1.20529079
-0.64121556
0.03022480
-0.74524194
0.70314360
1.02963161
0.05848813
-0.12568909
-1.29103863
-0.00454211
0.59288317
0.27868921
-0.27614978
-0.60640049
-0.02473605
-1.18697953
-0.78513288
-0.41946304
-1.24552953
-1.11089289
0.46341756
0.87536073
-0.22963944
0.55097675
0.20386548
0.19517997
-0.22643316
-0.52240551
-0.62285542
-1.74697089
-0.62858760
0.59705877
-0.33250877
-0.09755046
0.29034373
0.00884691
0.76866686
-0.23539656
1.40936446
-1.37675691
-0.28488743
0.29222512
0.09617383
0.25704944
-0.58879346
0.24545139
-0.42873305
-0.44274193
-1.02714968
-0.45902056
0.53763461
-0.98062909
-1.25857103
0.01172506
0.22727153
0.48403788
-0.03091289
-0.78691077
0.79182184
1.01298273
-0.22074226
0.51282096
1.40174794
-0.46536815
0.09586114
1.10769796
-0.05777152
1.28647065
0.58555377
0.81807166
-0.55048651
1.16876626
0.47371906
0.07036003
-1.15812111
0.12324929
0.06166592
-0.02956748
0.54760909
0.85489690
-0.81627429
1.53296852
-0.81845552
-0.08885890
1.45735884
0.34962738
-0.46050522
0.50307250
1.11870766
0.41236451
-0.39453247
-0.98349446
0.44302717
-0.15396208
0.06186645
-1.03057361
0.38871074
-0.02909781
-0.94721651
0.66687751
0.07898982
-0.43572092
-0.58099115
0.30584836
-0.97857499
-0.38500115
0.06923875
-0.40065277
0.73634672
0.63100690
0.77733475
0.22392184
0.64462095
0.31788099
0.16539565
0.34209451
0.85867012
0.27239269
1.49851751
-0.36557424
-0.84256339
0.04406127
-1.14994943
0.23508956
0.68091446
0.36012673
0.66424501
1.04112649
0.13955621
0.09078749
0.43654037
-0.02155410
-0.92612374
-0.02434632
-0.98051393
-0.50170189
0.52207214
0.35655555
0.44567072
0.06622884
-0.56507450
-0.00932826
0.21373786
0.39802203
0.90203124
-0.20016366
0.03431418
-0.60867471
1.77604592
-0.24998190
0.09864128
-1.49640059
-0.19381133
0.12625942
-0.77584261
-0.48007530
-0.31157184
-0.85088056
0.37889975
-0.90723443
0.68536550
-0.59575766
0.23779291
-0.53994071
-0.49410540
-0.45503485
-1.32761467
-0.06739084
0.71781647
0.97635740
-0.60851276
0.12998262
0.27902743
0.26054895
-0.39106619
-0.86009836
-0.69300139
0.63837308
0.14227498
0.36304188
-0.50809759
1.39610291
-1.64456964
-0.12696713
1.26956594
0.08531000
-0.08905393
-0.19635804
-0.81950629
-0.14747232
-0.25761598
-0.31141472
-0.55739045
-0.06446540
-1.15106785
0.68245316
-0.94002867
-0.60335869
-0.01016507
0.00995123
-0.51727903
0.73265719
-1.52378428
0.25878632
-1.02110064
0.54433268
0.42583588
0.87700349
0.16862695
-0.49649167
-0.98510629
0.43412474
0.19350654
0.60301471
0.00965965
-0.25849628
0.99874401
-0.16717966
0.39000240
-0.40604997
0.68116534
-1.14228618
-0.80679888
-0.90806454
-1.18709695
-0.89645624
1.08667064
